[{"nodeid": 0, "depth": 0, "split": "covid_cases__sum_8_days_sample_entropy", "split_condition": 0.0479035601, "yes": 1, "no": 2, "missing": 1, "children": [{"nodeid": 1, "depth": 1, "split": "covid_cases_kurtosis", "split_condition": 1.12289, "yes": 3, "no": 4, "missing": 4, "children": [{"nodeid": 3, "depth": 2, "split": "covid_cases__sum_8_days_maximum", "split_condition": 3423, "yes": 7, "no": 8, "missing": 8, "children": [{"nodeid": 7, "leaf": -0.00525769033}, {"nodeid": 8, "depth": 3, "split": "covid_cases_abs_energy", "split_condition": 12387088, "yes": 15, "no": 16, "missing": 16, "children": [{"nodeid": 15, "leaf": 0.0669638962}, {"nodeid": 16, "leaf": 0.0321548693}]}]}, {"nodeid": 4, "depth": 2, "split": "covid_cases_mean_change", "split_condition": 0.472007155, "yes": 9, "no": 10, "missing": 10, "children": [{"nodeid": 9, "leaf": 0.0954477787}, {"nodeid": 10, "depth": 3, "split": "covid_cases__sum_36_days_sample_entropy", "split_condition": 0.0214716308, "yes": 17, "no": 18, "missing": 17, "children": [{"nodeid": 17, "leaf": 0.0319878645}, {"nodeid": 18, "leaf": 0.0667091385}]}]}]}, {"nodeid": 2, "depth": 1, "split": "covid_cases__sum_36_days_sample_entropy", "split_condition": 0.0322699323, "yes": 5, "no": 6, "missing": 5, "children": [{"nodeid": 5, "depth": 2, "split": "covid_cases_sample_entropy", "split_condition": 0.133036584, "yes": 11, "no": 12, "missing": 12, "children": [{"nodeid": 11, "depth": 3, "split": "covid_cases__sum_36_days_count_below_mean", "split_condition": 126, "yes": 19, "no": 20, "missing": 19, "children": [{"nodeid": 19, "leaf": -0.0304893907}, {"nodeid": 20, "leaf": -0.0704281852}]}, {"nodeid": 12, "leaf": 0.0269794967}]}, {"nodeid": 6, "depth": 2, "split": "covid_cases_maximum", "split_condition": 928, "yes": 13, "no": 14, "missing": 14, "children": [{"nodeid": 13, "depth": 3, "split": "covid_cases__sum_43_days_count_below_mean", "split_condition": 129, "yes": 21, "no": 22, "missing": 21, "children": [{"nodeid": 21, "leaf": -0.0702160895}, {"nodeid": 22, "leaf": -0.0945523009}]}, {"nodeid": 14, "leaf": -0.0394955054}]}]}]}, {"nodeid": 0, "depth": 0, "split": "covid_cases__sum_8_days_sample_entropy", "split_condition": 0.0479041561, "yes": 1, "no": 2, "missing": 1, "children": [{"nodeid": 1, "depth": 1, "split": "covid_cases__sum_29_days_median", "split_condition": 11.25, "yes": 3, "no": 4, "missing": 4, "children": [{"nodeid": 3, "depth": 2, "split": "covid_cases__sum_43_days_variation_coefficient", "split_condition": 2.01094723, "yes": 7, "no": 8, "missing": 7, "children": [{"nodeid": 7, "depth": 3, "split": "covid_cases__sum_43_days_abs_energy", "split_condition": 194456416, "yes": 15, "no": 16, "missing": 16, "children": [{"nodeid": 15, "leaf": 0.0858682692}, {"nodeid": 16, "leaf": 0.0667112693}]}, {"nodeid": 8, "leaf": 0.046558518}]}, {"nodeid": 4, "depth": 2, "split": "covid_cases__sum_8_days_maximum", "split_condition": 3447.5, "yes": 9, "no": 10, "missing": 10, "children": [{"nodeid": 9, "leaf": 0.00182933256}, {"nodeid": 10, "depth": 3, "split": "covid_cases_maximum", "split_condition": 712.5, "yes": 17, "no": 18, "missing": 17, "children": [{"nodeid": 17, "leaf": 0.0692508146}, {"nodeid": 18, "leaf": 0.0331530049}]}]}]}, {"nodeid": 2, "depth": 1, "split": "covid_cases__sum_36_days_sample_entropy", "split_condition": 0.0304084048, "yes": 5, "no": 6, "missing": 5, "children": [{"nodeid": 5, "depth": 2, "split": "covid_cases_sample_entropy", "split_condition": 0.122537017, "yes": 11, "no": 12, "missing": 12, "children": [{"nodeid": 11, "depth": 3, "split": "covid_cases_count_above_mean", "split_condition": 83, "yes": 19, "no": 20, "missing": 19, "children": [{"nodeid": 19, "leaf": -0.0299470872}, {"nodeid": 20, "leaf": -0.0683107525}]}, {"nodeid": 12, "leaf": 0.0418610498}]}, {"nodeid": 6, "depth": 2, "split": "covid_cases__sum_29_days_maximum", "split_condition": 11196.5, "yes": 13, "no": 14, "missing": 14, "children": [{"nodeid": 13, "leaf": -0.0959288403}, {"nodeid": 14, "depth": 3, "split": "covid_cases__sum_29_days_absolute_sum_of_changes", "split_condition": 26988, "yes": 21, "no": 22, "missing": 22, "children": [{"nodeid": 21, "leaf": 0.0284374636}, {"nodeid": 22, "leaf": -0.0625661388}]}]}]}]}, {"nodeid": 0, "depth": 0, "split": "covid_cases__sum_8_days_sample_entropy", "split_condition": 0.0491880551, "yes": 1, "no": 2, "missing": 1, "children": [{"nodeid": 1, "depth": 1, "split": "covid_cases__sum_29_days_median", "split_condition": 11.25, "yes": 3, "no": 4, "missing": 4, "children": [{"nodeid": 3, "depth": 2, "split": "covid_cases__sum_8_days_variation_coefficient", "split_condition": 1.86580753, "yes": 7, "no": 8, "missing": 8, "children": [{"nodeid": 7, "depth": 3, "split": "covid_cases_absolute_sum_of_changes", "split_condition": 696.5, "yes": 15, "no": 16, "missing": 16, "children": [{"nodeid": 15, "leaf": 0.0883435309}, {"nodeid": 16, "leaf": 0.0660786629}]}, {"nodeid": 8, "leaf": 0.0418845676}]}, {"nodeid": 4, "depth": 2, "split": "covid_cases__sum_8_days_maximum", "split_condition": 3447.5, "yes": 9, "no": 10, "missing": 10, "children": [{"nodeid": 9, "depth": 3, "split": "covid_cases__sum_8_days_mean_change", "split_condition": 6.83205271, "yes": 17, "no": 18, "missing": 18, "children": [{"nodeid": 17, "leaf": 0.0410330407}, {"nodeid": 18, "leaf": -0.0279080477}]}, {"nodeid": 10, "depth": 3, "split": "covid_cases__sum_8_days_standard_deviation", "split_condition": 1558.41064, "yes": 19, "no": 20, "missing": 19, "children": [{"nodeid": 19, "leaf": 0.062011905}, {"nodeid": 20, "leaf": 0.0211115032}]}]}]}, {"nodeid": 2, "depth": 1, "split": "covid_cases__sum_43_days_mean_abs_change", "split_condition": 99.114212, "yes": 5, "no": 6, "missing": 6, "children": [{"nodeid": 5, "depth": 2, "split": "covid_cases_count_above_mean", "split_condition": 84, "yes": 11, "no": 12, "missing": 11, "children": [{"nodeid": 11, "leaf": -0.0174278039}, {"nodeid": 12, "leaf": -0.0922534168}]}, {"nodeid": 6, "depth": 2, "split": "covid_cases_maximum", "split_condition": 798.5, "yes": 13, "no": 14, "missing": 14, "children": [{"nodeid": 13, "depth": 3, "split": "covid_cases__sum_36_days_mean_change", "split_condition": 83.4943466, "yes": 21, "no": 22, "missing": 22, "children": [{"nodeid": 21, "leaf": -0.0180932414}, {"nodeid": 22, "leaf": 0.0526868515}]}, {"nodeid": 14, "depth": 3, "split": "covid_cases__sum_8_days_kurtosis", "split_condition": -1.73225069, "yes": 23, "no": 24, "missing": 24, "children": [{"nodeid": 23, "leaf": -0.0763389766}, {"nodeid": 24, "leaf": -0.0389678553}]}]}]}]}, {"nodeid": 0, "depth": 0, "split": "covid_cases__sum_8_days_sample_entropy", "split_condition": 0.0483240671, "yes": 1, "no": 2, "missing": 1, "children": [{"nodeid": 1, "depth": 1, "split": "covid_cases__sum_29_days_median", "split_condition": 10.75, "yes": 3, "no": 4, "missing": 4, "children": [{"nodeid": 3, "depth": 2, "split": "covid_cases__sum_8_days_variation_coefficient", "split_condition": 1.87390614, "yes": 7, "no": 8, "missing": 8, "children": [{"nodeid": 7, "depth": 3, "split": "covid_cases_absolute_sum_of_changes", "split_condition": 691, "yes": 15, "no": 16, "missing": 16, "children": [{"nodeid": 15, "leaf": 0.0837397054}, {"nodeid": 16, "leaf": 0.0642308444}]}, {"nodeid": 8, "leaf": 0.040038716}]}, {"nodeid": 4, "depth": 2, "split": "covid_cases_maximum", "split_condition": 563, "yes": 9, "no": 10, "missing": 10, "children": [{"nodeid": 9, "depth": 3, "split": "covid_cases_mean_change", "split_condition": 0.642749608, "yes": 17, "no": 18, "missing": 18, "children": [{"nodeid": 17, "leaf": 0.038773112}, {"nodeid": 18, "leaf": -0.0158340298}]}, {"nodeid": 10, "depth": 3, "split": "covid_cases_standard_deviation", "split_condition": 211.026459, "yes": 19, "no": 20, "missing": 19, "children": [{"nodeid": 19, "leaf": 0.0646810681}, {"nodeid": 20, "leaf": 0.0256186258}]}]}]}, {"nodeid": 2, "depth": 1, "split": "covid_cases__sum_36_days_sample_entropy", "split_condition": 0.0323437639, "yes": 5, "no": 6, "missing": 5, "children": [{"nodeid": 5, "depth": 2, "split": "covid_cases_sample_entropy", "split_condition": 0.131062657, "yes": 11, "no": 12, "missing": 12, "children": [{"nodeid": 11, "depth": 3, "split": "covid_cases__sum_8_days_sample_entropy", "split_condition": 0.0552880764, "yes": 21, "no": 22, "missing": 22, "children": [{"nodeid": 21, "leaf": -0.00797012169}, {"nodeid": 22, "leaf": -0.0541525781}]}, {"nodeid": 12, "leaf": 0.0301507767}]}, {"nodeid": 6, "depth": 2, "split": "covid_cases__sum_8_days_variation_coefficient", "split_condition": 0.78094691, "yes": 13, "no": 14, "missing": 14, "children": [{"nodeid": 13, "leaf": -0.0167796519}, {"nodeid": 14, "depth": 3, "split": "covid_cases_maximum", "split_condition": 937, "yes": 23, "no": 24, "missing": 24, "children": [{"nodeid": 23, "leaf": -0.0800986737}, {"nodeid": 24, "leaf": -0.0470513925}]}]}]}]}, {"nodeid": 0, "depth": 0, "split": "covid_cases__sum_8_days_sample_entropy", "split_condition": 0.0489174351, "yes": 1, "no": 2, "missing": 1, "children": [{"nodeid": 1, "depth": 1, "split": "covid_cases__sum_29_days_median", "split_condition": 10.75, "yes": 3, "no": 4, "missing": 4, "children": [{"nodeid": 3, "depth": 2, "split": "covid_cases__sum_43_days_variation_coefficient", "split_condition": 1.99919069, "yes": 7, "no": 8, "missing": 7, "children": [{"nodeid": 7, "depth": 3, "split": "covid_cases__sum_36_days_standard_deviation", "split_condition": 544.494141, "yes": 15, "no": 16, "missing": 16, "children": [{"nodeid": 15, "leaf": 0.0802257359}, {"nodeid": 16, "leaf": 0.0613717437}]}, {"nodeid": 8, "leaf": 0.0391263217}]}, {"nodeid": 4, "depth": 2, "split": "covid_cases__sum_8_days_maximum", "split_condition": 3447.5, "yes": 9, "no": 10, "missing": 10, "children": [{"nodeid": 9, "depth": 3, "split": "covid_cases__sum_8_days_mean_change", "split_condition": 6.83183384, "yes": 17, "no": 18, "missing": 18, "children": [{"nodeid": 17, "leaf": 0.0334326364}, {"nodeid": 18, "leaf": -0.0233153198}]}, {"nodeid": 10, "depth": 3, "split": "covid_cases__sum_8_days_maximum", "split_condition": 5365, "yes": 19, "no": 20, "missing": 19, "children": [{"nodeid": 19, "leaf": 0.0474470332}, {"nodeid": 20, "leaf": 0.0174483955}]}]}]}, {"nodeid": 2, "depth": 1, "split": "covid_cases__sum_43_days_mean_abs_change", "split_condition": 99.0108643, "yes": 5, "no": 6, "missing": 6, "children": [{"nodeid": 5, "depth": 2, "split": "covid_cases__sum_8_days_variation_coefficient", "split_condition": 1.06557822, "yes": 11, "no": 12, "missing": 12, "children": [{"nodeid": 11, "leaf": -0.0863478258}, {"nodeid": 12, "leaf": -0.01465433}]}, {"nodeid": 6, "depth": 2, "split": "covid_cases_maximum", "split_condition": 798.5, "yes": 13, "no": 14, "missing": 14, "children": [{"nodeid": 13, "depth": 3, "split": "covid_cases__sum_8_days_count_below_mean", "split_condition": 114, "yes": 21, "no": 22, "missing": 21, "children": [{"nodeid": 21, "leaf": 0.0404409841}, {"nodeid": 22, "leaf": -0.0211418513}]}, {"nodeid": 14, "depth": 3, "split": "covid_cases__sum_8_days_maximum", "split_condition": 5676, "yes": 23, "no": 24, "missing": 24, "children": [{"nodeid": 23, "leaf": -0.0750551969}, {"nodeid": 24, "leaf": -0.0298495386}]}]}]}]}, {"nodeid": 0, "depth": 0, "split": "covid_cases__sum_8_days_sample_entropy", "split_condition": 0.0478529185, "yes": 1, "no": 2, "missing": 1, "children": [{"nodeid": 1, "depth": 1, "split": "covid_cases_kurtosis", "split_condition": 1.59022403, "yes": 3, "no": 4, "missing": 4, "children": [{"nodeid": 3, "depth": 2, "split": "covid_cases__sum_29_days_abs_energy", "split_condition": 1122848260.0, "yes": 7, "no": 8, "missing": 8, "children": [{"nodeid": 7, "leaf": -0.0059712478}, {"nodeid": 8, "depth": 3, "split": "covid_cases_sample_entropy", "split_condition": 0.0651657432, "yes": 15, "no": 16, "missing": 16, "children": [{"nodeid": 15, "leaf": 0.00759006804}, {"nodeid": 16, "leaf": 0.0398164503}]}]}, {"nodeid": 4, "depth": 2, "split": "covid_cases_mean_change", "split_condition": 0.471273303, "yes": 9, "no": 10, "missing": 10, "children": [{"nodeid": 9, "leaf": 0.0807331875}, {"nodeid": 10, "depth": 3, "split": "covid_cases__sum_43_days_skewness", "split_condition": 2.30377531, "yes": 17, "no": 18, "missing": 18, "children": [{"nodeid": 17, "leaf": 0.0568576418}, {"nodeid": 18, "leaf": 0.0317082405}]}]}]}, {"nodeid": 2, "depth": 1, "split": "covid_cases__sum_36_days_sample_entropy", "split_condition": 0.0322717354, "yes": 5, "no": 6, "missing": 5, "children": [{"nodeid": 5, "depth": 2, "split": "covid_cases_sample_entropy", "split_condition": 0.139995575, "yes": 11, "no": 12, "missing": 12, "children": [{"nodeid": 11, "depth": 3, "split": "covid_cases__sum_43_days_count_below_mean", "split_condition": 127, "yes": 19, "no": 20, "missing": 19, "children": [{"nodeid": 19, "leaf": -0.0217508376}, {"nodeid": 20, "leaf": -0.0533474274}]}, {"nodeid": 12, "leaf": 0.0387967043}]}, {"nodeid": 6, "depth": 2, "split": "covid_cases__sum_8_days_variation_coefficient", "split_condition": 0.780628085, "yes": 13, "no": 14, "missing": 14, "children": [{"nodeid": 13, "leaf": -0.010393043}, {"nodeid": 14, "depth": 3, "split": "covid_cases_maximum", "split_condition": 944, "yes": 21, "no": 22, "missing": 22, "children": [{"nodeid": 21, "leaf": -0.0740930662}, {"nodeid": 22, "leaf": -0.0375028886}]}]}]}]}, {"nodeid": 0, "depth": 0, "split": "covid_cases__sum_8_days_sample_entropy", "split_condition": 0.0523777641, "yes": 1, "no": 2, "missing": 1, "children": [{"nodeid": 1, "depth": 1, "split": "covid_cases__sum_29_days_median", "split_condition": 10.25, "yes": 3, "no": 4, "missing": 4, "children": [{"nodeid": 3, "depth": 2, "split": "covid_cases__sum_43_days_variation_coefficient", "split_condition": 1.99304235, "yes": 7, "no": 8, "missing": 8, "children": [{"nodeid": 7, "depth": 3, "split": "covid_cases_absolute_sum_of_changes", "split_condition": 1465.5, "yes": 15, "no": 16, "missing": 16, "children": [{"nodeid": 15, "leaf": 0.0723767728}, {"nodeid": 16, "leaf": 0.0555812828}]}, {"nodeid": 8, "depth": 3, "split": "covid_cases_skewness", "split_condition": 2.42362976, "yes": 17, "no": 18, "missing": 18, "children": [{"nodeid": 17, "leaf": 0.0277281832}, {"nodeid": 18, "leaf": 0.0530588925}]}]}, {"nodeid": 4, "depth": 2, "split": "covid_cases_mean_change", "split_condition": 0.388225377, "yes": 9, "no": 10, "missing": 9, "children": [{"nodeid": 9, "leaf": 0.0589163788}, {"nodeid": 10, "depth": 3, "split": "covid_cases__sum_8_days_maximum", "split_condition": 2516, "yes": 19, "no": 20, "missing": 19, "children": [{"nodeid": 19, "leaf": -0.0315440595}, {"nodeid": 20, "leaf": 0.0250850655}]}]}]}, {"nodeid": 2, "depth": 1, "split": "covid_cases__sum_36_days_mean_abs_change", "split_condition": 93.2915039, "yes": 5, "no": 6, "missing": 5, "children": [{"nodeid": 5, "depth": 2, "split": "covid_cases__sum_29_days_kurtosis", "split_condition": -1.46879745, "yes": 11, "no": 12, "missing": 11, "children": [{"nodeid": 11, "leaf": -0.0818238184}, {"nodeid": 12, "leaf": -0.0191365611}]}, {"nodeid": 6, "depth": 2, "split": "covid_cases_maximum", "split_condition": 832.5, "yes": 13, "no": 14, "missing": 14, "children": [{"nodeid": 13, "depth": 3, "split": "covid_cases__sum_8_days_count_below_mean", "split_condition": 114, "yes": 21, "no": 22, "missing": 21, "children": [{"nodeid": 21, "leaf": 0.0373650864}, {"nodeid": 22, "leaf": -0.0250240024}]}, {"nodeid": 14, "depth": 3, "split": "covid_cases__sum_8_days_maximum", "split_condition": 5676, "yes": 23, "no": 24, "missing": 24, "children": [{"nodeid": 23, "leaf": -0.0737189353}, {"nodeid": 24, "leaf": -0.0368238054}]}]}]}]}, {"nodeid": 0, "depth": 0, "split": "covid_cases__sum_8_days_sample_entropy", "split_condition": 0.053928975, "yes": 1, "no": 2, "missing": 1, "children": [{"nodeid": 1, "depth": 1, "split": "covid_cases_skewness", "split_condition": 1.51993465, "yes": 3, "no": 4, "missing": 4, "children": [{"nodeid": 3, "depth": 2, "split": "covid_cases_sample_entropy", "split_condition": 0.0594085678, "yes": 7, "no": 8, "missing": 8, "children": [{"nodeid": 7, "leaf": -0.0190652851}, {"nodeid": 8, "depth": 3, "split": "covid_cases__sum_8_days_mean_change", "split_condition": 23.9940109, "yes": 15, "no": 16, "missing": 16, "children": [{"nodeid": 15, "leaf": 0.0115906233}, {"nodeid": 16, "leaf": 0.0382955223}]}]}, {"nodeid": 4, "depth": 2, "split": "covid_cases_mean_change", "split_condition": 0.505630612, "yes": 9, "no": 10, "missing": 10, "children": [{"nodeid": 9, "leaf": 0.0749493465}, {"nodeid": 10, "depth": 3, "split": "covid_cases__sum_43_days_median", "split_condition": 21.5, "yes": 17, "no": 18, "missing": 18, "children": [{"nodeid": 17, "leaf": 0.0505850688}, {"nodeid": 18, "leaf": 0.0143763022}]}]}]}, {"nodeid": 2, "depth": 1, "split": "covid_cases__sum_43_days_mean_abs_change", "split_condition": 99.5695648, "yes": 5, "no": 6, "missing": 6, "children": [{"nodeid": 5, "depth": 2, "split": "covid_cases_kurtosis", "split_condition": -0.970607817, "yes": 11, "no": 12, "missing": 12, "children": [{"nodeid": 11, "leaf": -0.0788292661}, {"nodeid": 12, "leaf": -0.0375040993}]}, {"nodeid": 6, "depth": 2, "split": "covid_cases_maximum", "split_condition": 798.5, "yes": 13, "no": 14, "missing": 14, "children": [{"nodeid": 13, "depth": 3, "split": "covid_cases__sum_8_days_count_below_mean", "split_condition": 114, "yes": 19, "no": 20, "missing": 19, "children": [{"nodeid": 19, "leaf": 0.0431851111}, {"nodeid": 20, "leaf": -0.0182878841}]}, {"nodeid": 14, "depth": 3, "split": "covid_cases__sum_8_days_kurtosis", "split_condition": -1.74948382, "yes": 21, "no": 22, "missing": 22, "children": [{"nodeid": 21, "leaf": -0.0699205846}, {"nodeid": 22, "leaf": -0.03445917}]}]}]}]}, {"nodeid": 0, "depth": 0, "split": "covid_cases__sum_8_days_sample_entropy", "split_condition": 0.0525082201, "yes": 1, "no": 2, "missing": 1, "children": [{"nodeid": 1, "depth": 1, "split": "covid_cases_kurtosis", "split_condition": 1.10099411, "yes": 3, "no": 4, "missing": 4, "children": [{"nodeid": 3, "depth": 2, "split": "covid_cases_sample_entropy", "split_condition": 0.06043249, "yes": 7, "no": 8, "missing": 8, "children": [{"nodeid": 7, "leaf": -0.0195832923}, {"nodeid": 8, "depth": 3, "split": "covid_cases__sum_43_days_maximum", "split_condition": 25374, "yes": 15, "no": 16, "missing": 16, "children": [{"nodeid": 15, "leaf": 0.0255769938}, {"nodeid": 16, "leaf": -0.00100696005}]}]}, {"nodeid": 4, "depth": 2, "split": "covid_cases_mean_change", "split_condition": 0.442169964, "yes": 9, "no": 10, "missing": 9, "children": [{"nodeid": 9, "leaf": 0.0725806728}, {"nodeid": 10, "depth": 3, "split": "covid_cases__sum_43_days_median", "split_condition": 21.5, "yes": 17, "no": 18, "missing": 18, "children": [{"nodeid": 17, "leaf": 0.0473546498}, {"nodeid": 18, "leaf": 0.0125181032}]}]}]}, {"nodeid": 2, "depth": 1, "split": "covid_cases__sum_43_days_mean_abs_change", "split_condition": 99.0108643, "yes": 5, "no": 6, "missing": 6, "children": [{"nodeid": 5, "depth": 2, "split": "covid_cases_skewness", "split_condition": 0.720930934, "yes": 11, "no": 12, "missing": 12, "children": [{"nodeid": 11, "leaf": -0.0769521371}, {"nodeid": 12, "leaf": -0.0251113623}]}, {"nodeid": 6, "depth": 2, "split": "covid_cases_maximum", "split_condition": 832.5, "yes": 13, "no": 14, "missing": 14, "children": [{"nodeid": 13, "depth": 3, "split": "covid_cases__sum_8_days_count_below_mean", "split_condition": 114, "yes": 19, "no": 20, "missing": 19, "children": [{"nodeid": 19, "leaf": 0.0335510299}, {"nodeid": 20, "leaf": -0.0231260937}]}, {"nodeid": 14, "depth": 3, "split": "covid_cases__sum_8_days_maximum", "split_condition": 5676, "yes": 21, "no": 22, "missing": 22, "children": [{"nodeid": 21, "leaf": -0.0682210848}, {"nodeid": 22, "leaf": -0.0313618965}]}]}]}]}, {"nodeid": 0, "depth": 0, "split": "covid_cases__sum_8_days_sample_entropy", "split_condition": 0.0525082201, "yes": 1, "no": 2, "missing": 1, "children": [{"nodeid": 1, "depth": 1, "split": "covid_cases__sum_29_days_median", "split_condition": 10.75, "yes": 3, "no": 4, "missing": 4, "children": [{"nodeid": 3, "depth": 2, "split": "covid_cases__sum_43_days_variation_coefficient", "split_condition": 1.99424851, "yes": 7, "no": 8, "missing": 7, "children": [{"nodeid": 7, "depth": 3, "split": "covid_cases_absolute_sum_of_changes", "split_condition": 668.5, "yes": 15, "no": 16, "missing": 16, "children": [{"nodeid": 15, "leaf": 0.0695257112}, {"nodeid": 16, "leaf": 0.0498965383}]}, {"nodeid": 8, "leaf": 0.0269086547}]}, {"nodeid": 4, "depth": 2, "split": "covid_cases__sum_43_days_variation_coefficient", "split_condition": 1.37142205, "yes": 9, "no": 10, "missing": 10, "children": [{"nodeid": 9, "leaf": 0.049019523}, {"nodeid": 10, "depth": 3, "split": "covid_cases__sum_8_days_standard_deviation", "split_condition": 813.629028, "yes": 17, "no": 18, "missing": 18, "children": [{"nodeid": 17, "leaf": -0.0267588105}, {"nodeid": 18, "leaf": 0.0218444858}]}]}]}, {"nodeid": 2, "depth": 1, "split": "covid_cases__sum_43_days_mean_abs_change", "split_condition": 99.2970581, "yes": 5, "no": 6, "missing": 5, "children": [{"nodeid": 5, "depth": 2, "split": "covid_cases__sum_8_days_sample_entropy", "split_condition": 0.0711425245, "yes": 11, "no": 12, "missing": 12, "children": [{"nodeid": 11, "leaf": -0.0334192924}, {"nodeid": 12, "leaf": -0.0750814751}]}, {"nodeid": 6, "depth": 2, "split": "covid_cases_maximum", "split_condition": 798.5, "yes": 13, "no": 14, "missing": 14, "children": [{"nodeid": 13, "depth": 3, "split": "covid_cases__sum_36_days_sample_entropy", "split_condition": 0.0322699323, "yes": 19, "no": 20, "missing": 20, "children": [{"nodeid": 19, "leaf": 0.0274219997}, {"nodeid": 20, "leaf": -0.0335045122}]}, {"nodeid": 14, "depth": 3, "split": "covid_cases__sum_36_days_standard_deviation", "split_condition": 9866.38477, "yes": 21, "no": 22, "missing": 22, "children": [{"nodeid": 21, "leaf": -0.0374205336}, {"nodeid": 22, "leaf": -0.0824409053}]}]}]}]}, {"nodeid": 0, "depth": 0, "split": "covid_cases__sum_8_days_sample_entropy", "split_condition": 0.0478404202, "yes": 1, "no": 2, "missing": 1, "children": [{"nodeid": 1, "depth": 1, "split": "covid_cases_kurtosis", "split_condition": 0.969483376, "yes": 3, "no": 4, "missing": 4, "children": [{"nodeid": 3, "depth": 2, "split": "covid_cases__sum_8_days_maximum", "split_condition": 3447.5, "yes": 7, "no": 8, "missing": 8, "children": [{"nodeid": 7, "leaf": -0.0092169391}, {"nodeid": 8, "depth": 3, "split": "covid_cases_sample_entropy", "split_condition": 0.0663816482, "yes": 15, "no": 16, "missing": 16, "children": [{"nodeid": 15, "leaf": 0.0112972986}, {"nodeid": 16, "leaf": 0.0392957777}]}]}, {"nodeid": 4, "depth": 2, "split": "covid_cases_mean_change", "split_condition": 0.505630612, "yes": 9, "no": 10, "missing": 10, "children": [{"nodeid": 9, "leaf": 0.0702223703}, {"nodeid": 10, "depth": 3, "split": "covid_cases__sum_43_days_mean_abs_change", "split_condition": 116.875427, "yes": 17, "no": 18, "missing": 18, "children": [{"nodeid": 17, "leaf": 0.0424472205}, {"nodeid": 18, "leaf": 0.00632995972}]}]}]}, {"nodeid": 2, "depth": 1, "split": "covid_cases__sum_36_days_sample_entropy", "split_condition": 0.0324378647, "yes": 5, "no": 6, "missing": 5, "children": [{"nodeid": 5, "depth": 2, "split": "covid_cases_sample_entropy", "split_condition": 0.122536734, "yes": 11, "no": 12, "missing": 12, "children": [{"nodeid": 11, "depth": 3, "split": "covid_cases__sum_29_days_abs_energy", "split_condition": 15944782800.0, "yes": 19, "no": 20, "missing": 20, "children": [{"nodeid": 19, "leaf": -0.0493057519}, {"nodeid": 20, "leaf": -0.00941217598}]}, {"nodeid": 12, "depth": 3, "split": "covid_cases__sum_36_days_sample_entropy", "split_condition": 0.0295487233, "yes": 21, "no": 22, "missing": 22, "children": [{"nodeid": 21, "leaf": 0.0467282347}, {"nodeid": 22, "leaf": -0.00711988425}]}]}, {"nodeid": 6, "depth": 2, "split": "covid_cases_maximum", "split_condition": 928, "yes": 13, "no": 14, "missing": 14, "children": [{"nodeid": 13, "depth": 3, "split": "covid_cases__sum_29_days_standard_deviation", "split_condition": 5713.00293, "yes": 23, "no": 24, "missing": 24, "children": [{"nodeid": 23, "leaf": -0.0728560239}, {"nodeid": 24, "leaf": -0.0519876555}]}, {"nodeid": 14, "leaf": -0.0205302872}]}]}]}]